digraph Tree {
node [shape=box, style="filled, rounded", color="black", fontname=helvetica] ;
edge [fontname=helvetica] ;
0 [label="('count', 66) <= 349.0\nmse = 883176.82\nsamples = 99\nvalue = 488.67", fillcolor="#fbeee4"] ;
1 [label="('sentiment_positive', 25) <= 27.5\nmse = 145809.11\nsamples = 93\nvalue = 327.43", fillcolor="#fdf4ed"] ;
0 -> 1 [labeldistance=2.5, labelangle=45, headlabel="True"] ;
2 [label="('count', 25) <= 10.5\nmse = 53075.1\nsamples = 67\nvalue = 215.05", fillcolor="#fdf8f4"] ;
1 -> 2 ;
3 [label="('sentiment_positive', 36) <= 1.5\nmse = 22293.52\nsamples = 24\nvalue = 99.29", fillcolor="#fefcfa"] ;
2 -> 3 ;
4 [label="mse = 63511.35\nsamples = 6\nvalue = 266.29", fillcolor="#fdf6f1"] ;
3 -> 4 ;
5 [label="('count', 25) <= 7.5\nmse = 3273.75\nsamples = 18\nvalue = 57.54", fillcolor="#fffdfc"] ;
3 -> 5 ;
6 [label="mse = 61.36\nsamples = 7\nvalue = 11.91", fillcolor="#ffffff"] ;
5 -> 6 ;
7 [label="('sentiment_positive', 64) <= 2.5\nmse = 3133.7\nsamples = 11\nvalue = 87.06", fillcolor="#fefcfb"] ;
5 -> 7 ;
8 [label="mse = 2634.96\nsamples = 6\nvalue = 118.2", fillcolor="#fefbf9"] ;
7 -> 8 ;
9 [label="mse = 481.67\nsamples = 5\nvalue = 42.57", fillcolor="#fffefd"] ;
7 -> 9 ;
10 [label="('sentiment_negative', 40) <= 2.5\nmse = 58386.66\nsamples = 43\nvalue = 272.11", fillcolor="#fdf6f0"] ;
2 -> 10 ;
11 [label="mse = 46683.0\nsamples = 6\nvalue = 635.0", fillcolor="#fae9dc"] ;
10 -> 11 ;
12 [label="('sentiment_neutral', 55) <= 3.5\nmse = 35178.2\nsamples = 37\nvalue = 212.62", fillcolor="#fef8f4"] ;
10 -> 12 ;
13 [label="('count', 56) <= 21.5\nmse = 69719.76\nsamples = 13\nvalue = 311.8", fillcolor="#fdf4ee"] ;
12 -> 13 ;
14 [label="mse = 2866.41\nsamples = 7\nvalue = 163.92", fillcolor="#fefaf6"] ;
13 -> 14 ;
15 [label="mse = 87989.23\nsamples = 6\nvalue = 533.62", fillcolor="#fbece1"] ;
13 -> 15 ;
16 [label="('sentiment_positive', 42) <= 26.5\nmse = 11190.04\nsamples = 24\nvalue = 164.24", fillcolor="#fefaf6"] ;
12 -> 16 ;
17 [label="('sentiment_neutral', 17) <= 19.5\nmse = 9662.77\nsamples = 16\nvalue = 114.0", fillcolor="#fefbf9"] ;
16 -> 17 ;
18 [label="mse = 7604.85\nsamples = 7\nvalue = 195.75", fillcolor="#fef8f5"] ;
17 -> 18 ;
19 [label="mse = 788.35\nsamples = 9\nvalue = 43.93", fillcolor="#fffefd"] ;
17 -> 19 ;
20 [label="mse = 1877.02\nsamples = 8\nvalue = 251.33", fillcolor="#fdf6f1"] ;
16 -> 20 ;
21 [label="('count', 30) <= 37.0\nmse = 265480.65\nsamples = 26\nvalue = 598.18", fillcolor="#fbeade"] ;
1 -> 21 ;
22 [label="mse = 355935.0\nsamples = 5\nvalue = 1555.0", fillcolor="#f4c7a8"] ;
21 -> 22 ;
23 [label="('sentiment_negative', 55) <= 25.5\nmse = 83821.46\nsamples = 21\nvalue = 447.11", fillcolor="#fcefe6"] ;
21 -> 23 ;
24 [label="('count', 37) <= 112.5\nmse = 73610.97\nsamples = 15\nvalue = 566.27", fillcolor="#fbebe0"] ;
23 -> 24 ;
25 [label="('sentiment_negative', 14) <= 15.5\nmse = 12803.44\nsamples = 10\nvalue = 433.33", fillcolor="#fcf0e7"] ;
24 -> 25 ;
26 [label="mse = 8415.94\nsamples = 5\nvalue = 351.25", fillcolor="#fcf3ec"] ;
25 -> 26 ;
27 [label="mse = 6611.2\nsamples = 5\nvalue = 499.0", fillcolor="#fbede3"] ;
25 -> 27 ;
28 [label="mse = 81201.73\nsamples = 5\nvalue = 865.38", fillcolor="#f9e0cf"] ;
24 -> 28 ;
29 [label="mse = 8516.08\nsamples = 6\nvalue = 188.92", fillcolor="#fef9f5"] ;
23 -> 29 ;
30 [label="mse = 5081604.11\nsamples = 6\nvalue = 3511.88", fillcolor="#e58139"] ;
0 -> 30 [labeldistance=2.5, labelangle=-45, headlabel="False"] ;
}